{
  "modelJson": {
    "type": "NeuralNetwork",
    "sizes": [
      5,
      20,
      10,
      3
    ],
    "layers": [
      {
        "weights": [],
        "biases": []
      },
      {
        "weights": [
          [
            -0.927596390247345,
            -0.8783378601074219,
            -0.8487374186515808,
            -0.3917653262615204,
            -1.7886099815368652
          ],
          [
            -1.0206032991409302,
            -1.1234015226364136,
            -0.8795018196105957,
            -0.4341936707496643,
            -1.9564745426177979
          ],
          [
            1.5326943397521973,
            1.2184584140777588,
            1.5746803283691406,
            -0.7099199891090393,
            2.546398401260376
          ],
          [
            0.7765445709228516,
            0.5269455909729004,
            0.5514623522758484,
            0.41663190722465515,
            1.2568926811218262
          ],
          [
            -1.5323998928070068,
            -1.5490933656692505,
            -1.4000723361968994,
            0.23578797280788422,
            -2.2939438819885254
          ],
          [
            -0.24984149634838104,
            0.010188802145421505,
            0.08106162399053574,
            -0.9592204093933105,
            -0.3848962187767029
          ],
          [
            0.3782546818256378,
            0.2968056797981262,
            0.1589217185974121,
            0.6435613036155701,
            0.9133729338645935
          ],
          [
            0.5739420056343079,
            0.904524564743042,
            0.8423036932945251,
            0.23114432394504547,
            1.3342972993850708
          ],
          [
            -0.21766741573810577,
            -0.3419685959815979,
            -0.3234146237373352,
            -0.7412624955177307,
            -0.960408091545105
          ],
          [
            0.45977869629859924,
            0.62196284532547,
            0.4259184002876282,
            0.5190668106079102,
            1.235813856124878
          ],
          [
            1.3040401935577393,
            1.0588804483413696,
            1.053954839706421,
            -0.3656437397003174,
            2.060622215270996
          ],
          [
            -0.7113828063011169,
            -1.0173040628433228,
            -0.9186143279075623,
            -0.45415303111076355,
            -1.4004920721054077
          ],
          [
            0.6850128173828125,
            0.8328883051872253,
            0.9296109080314636,
            -0.18568465113639832,
            1.6054742336273193
          ],
          [
            -1.4224079847335815,
            -1.4550269842147827,
            -1.509660005569458,
            0.5244059562683105,
            -2.329371213912964
          ],
          [
            0.2396327704191208,
            0.17985796928405762,
            0.37890419363975525,
            0.895744264125824,
            0.8062328100204468
          ],
          [
            0.41707512736320496,
            0.5237283110618591,
            0.4184420704841614,
            0.756888210773468,
            0.8282115459442139
          ],
          [
            -0.8494303226470947,
            -0.9093634486198425,
            -1.0617854595184326,
            -0.17236462235450745,
            -1.7022755146026611
          ],
          [
            -1.3558850288391113,
            -1.3016268014907837,
            -0.9688333868980408,
            0.013722152449190617,
            -2.0573294162750244
          ],
          [
            1.002622127532959,
            1.206408977508545,
            1.2372413873672485,
            -0.04707023873925209,
            1.7251209020614624
          ],
          [
            0.1536523699760437,
            0.1873084157705307,
            0.02749028243124485,
            -1.2177879810333252,
            -0.18435512483119965
          ]
        ],
        "biases": [
          2.0718648433685303,
          2.4306633472442627,
          -1.1263703107833862,
          -0.6311047077178955,
          2.0866570472717285,
          0.37302401661872864,
          0.14453361928462982,
          -0.5118323564529419,
          0.7943874597549438,
          -0.06895377486944199,
          -1.0100603103637695,
          1.8950518369674683,
          -0.16728061437606812,
          1.6013641357421875,
          0.21528714895248413,
          -0.4081723392009735,
          1.7091315984725952,
          2.0032081604003906,
          -1.1020898818969727,
          0.2418346405029297
        ]
      },
      {
        "weights": [
          [
            -1.0132362842559814,
            -0.9360867142677307,
            1.6430048942565918,
            0.5443549752235413,
            -1.654790997505188,
            -0.03374568000435829,
            0.1118561327457428,
            0.7964788675308228,
            -0.18752910196781158,
            0.36872217059135437,
            1.331960916519165,
            -0.6748069524765015,
            0.8697022199630737,
            -1.4488413333892822,
            0.24760867655277252,
            0.2625993490219116,
            -0.9936844110488892,
            -1.1603984832763672,
            0.932414710521698,
            0.07370909303426743
          ],
          [
            1.9532315731048584,
            2.2094244956970215,
            -0.9677842855453491,
            -0.6983809471130371,
            2.0029749870300293,
            0.9201287627220154,
            -0.29037341475486755,
            -0.3466082513332367,
            1.3612228631973267,
            -0.30186623334884644,
            -0.6186313629150391,
            1.7571415901184082,
            -0.06856293231248856,
            1.723801612854004,
            -0.35019099712371826,
            -0.7756187319755554,
            1.518280267715454,
            1.944642424583435,
            -0.9446881413459778,
            0.8459814786911011
          ],
          [
            1.8293673992156982,
            2.0361249446868896,
            -2.759575366973877,
            -1.1312203407287598,
            2.613847017288208,
            -0.004020657856017351,
            -0.6502394080162048,
            -1.4166775941848755,
            0.555635392665863,
            -0.8304355144500732,
            -2.204702138900757,
            1.71101975440979,
            -1.5720497369766235,
            2.7857367992401123,
            -0.4418746531009674,
            -0.8451631665229797,
            1.7981679439544678,
            2.387385129928589,
            -2.0960934162139893,
            -0.30603811144828796
          ],
          [
            -1.388466477394104,
            -1.676252007484436,
            0.46838706731796265,
            0.46515652537345886,
            -1.2206361293792725,
            -0.7000553011894226,
            0.13108837604522705,
            0.4858091175556183,
            -0.9421201944351196,
            0.41724419593811035,
            0.4906616806983948,
            -1.3201298713684082,
            0.023887842893600464,
            -0.8665223717689514,
            0.28073108196258545,
            0.5716455578804016,
            -1.2297039031982422,
            -1.3810725212097168,
            0.4968242347240448,
            -0.7051892280578613
          ],
          [
            0.9919570088386536,
            1.0488898754119873,
            -0.24346280097961426,
            -0.2621012330055237,
            1.2173455953598022,
            0.5315701365470886,
            0.014353244565427303,
            -0.398887574672699,
            0.4371386766433716,
            -0.281775563955307,
            -0.545423686504364,
            1.0957483053207397,
            -0.03221259266138077,
            0.9967119693756104,
            -0.10414186120033264,
            -0.28673917055130005,
            1.105656623840332,
            0.8481265306472778,
            -0.539371132850647,
            0.4455427825450897
          ],
          [
            -0.7829206585884094,
            -0.9488093256950378,
            0.7679345011711121,
            0.23464258015155792,
            -1.1991150379180908,
            -0.2131904661655426,
            0.03917170315980911,
            0.19980795681476593,
            -0.6105493903160095,
            0.013667824678122997,
            0.6743856072425842,
            -0.6497706770896912,
            0.08641397207975388,
            -0.9069133400917053,
            -0.05584483593702316,
            0.02543875016272068,
            -0.8431760668754578,
            -0.8361372351646423,
            0.6390600800514221,
            0.0006331230979412794
          ],
          [
            0.24522541463375092,
            0.423457533121109,
            -0.8483744859695435,
            -0.9501640200614929,
            0.13774868845939636,
            0.6409449577331543,
            -1.1013851165771484,
            -0.9507251977920532,
            0.8745415210723877,
            -1.186564564704895,
            -0.6775206327438354,
            0.5683261752128601,
            -0.8498786687850952,
            0.14597737789154053,
            -1.2519409656524658,
            -1.0194768905639648,
            0.38158681988716125,
            0.10623089224100113,
            -1.0530545711517334,
            1.1298185586929321
          ],
          [
            -1.2633439302444458,
            -1.7353097200393677,
            2.136662721633911,
            0.9527741074562073,
            -2.1253983974456787,
            0.21865583956241608,
            0.27402085065841675,
            0.8928194642066956,
            -0.5546315908432007,
            0.9286026954650879,
            1.5713083744049072,
            -1.1439919471740723,
            1.2217154502868652,
            -2.0129852294921875,
            0.21498414874076843,
            0.48556116223335266,
            -1.3519407510757446,
            -1.802331566810608,
            1.5937814712524414,
            0.4207848012447357
          ],
          [
            -2.017007350921631,
            -2.257072687149048,
            0.7406972646713257,
            0.8027111291885376,
            -2.03760027885437,
            -0.9457653164863586,
            0.2429300844669342,
            0.5306937098503113,
            -1.2253338098526,
            0.4190446436405182,
            0.9293967485427856,
            -1.8105376958847046,
            0.33263200521469116,
            -1.4807170629501343,
            0.16687552630901337,
            0.4354541599750519,
            -1.7268524169921875,
            -1.950831413269043,
            0.8808378577232361,
            -0.8906339406967163
          ],
          [
            0.46059849858283997,
            0.5635042786598206,
            -1.3604315519332886,
            -0.9563139081001282,
            0.6958518028259277,
            0.38017696142196655,
            -0.8329160213470459,
            -1.0791512727737427,
            0.5425521731376648,
            -1.0800491571426392,
            -0.9698715806007385,
            0.5446487665176392,
            -1.150597095489502,
            0.5094441771507263,
            -1.168015480041504,
            -0.9519726634025574,
            0.36751458048820496,
            0.2447381168603897,
            -1.1428629159927368,
            0.17267808318138123
          ]
        ],
        "biases": [
          -0.04852445423603058,
          0.6831310391426086,
          0.09245867282152176,
          -0.5650355219841003,
          0.24853284657001495,
          -0.22644899785518646,
          -0.48362892866134644,
          0.02467293106019497,
          -0.7193700671195984,
          -0.5411206483840942
        ]
      },
      {
        "weights": [
          [
            -2.687321424484253,
            1.1056655645370483,
            5.097021579742432,
            -1.1922338008880615,
            0.7097387909889221,
            -1.7756941318511963,
            -5.803347110748291,
            -4.318676471710205,
            -2.217484712600708,
            -4.9945783615112305
          ],
          [
            1.5169113874435425,
            3.734373092651367,
            -7.926289081573486,
            -3.2837696075439453,
            0.25739288330078125,
            -0.5904371738433838,
            -0.6316314339637756,
            3.2759218215942383,
            -5.507526397705078,
            -1.6828997135162354
          ],
          [
            0.6655146479606628,
            -4.6657586097717285,
            -2.5167670249938965,
            2.0745632648468018,
            -3.1655397415161133,
            1.5523076057434082,
            -1.0368919372558594,
            0.806048572063446,
            3.1224634647369385,
            -1.3966721296310425
          ]
        ],
        "biases": [
          -0.8770419955253601,
          -1.8836278915405273,
          -1.0802791118621826
        ]
      }
    ],
    "inputLookup": {
      "systolic": 0,
      "diastolic": 1,
      "heartRate": 2,
      "oxygenLevel": 3,
      "temperature": 4
    },
    "inputLookupLength": 5,
    "outputLookup": {
      "normal": 0,
      "abnormal": 1,
      "critical": 2
    },
    "outputLookupLength": 3,
    "options": {
      "inputSize": 0,
      "outputSize": 0,
      "binaryThresh": 0.5,
      "hiddenLayers": [
        20,
        10
      ],
      "activation": "sigmoid",
      "learningRate": 0.01
    },
    "trainOpts": {
      "activation": "sigmoid",
      "iterations": 1000,
      "errorThresh": 0.005,
      "log": true,
      "logPeriod": 10,
      "leakyReluAlpha": 0.01,
      "learningRate": 0.01,
      "momentum": 0.1,
      "callbackPeriod": 10,
      "timeout": "Infinity",
      "beta1": 0.9,
      "beta2": 0.999,
      "epsilon": 1e-8
    }
  },
  "method": "neural-network",
  "recordCount": 10200,
  "iterations": 1000,
  "error": 0.013086927500706731,
  "accuracy": 90.19607843137256,
  "timestamp": "2025-05-27T20:50:53.935Z"
}