{
  "modelJson": {
    "type": "NeuralNetwork",
    "sizes": [
      5,
      20,
      10,
      3
    ],
    "layers": [
      {
        "weights": [],
        "biases": []
      },
      {
        "weights": [
          [
            -1.1466189622879028,
            -0.9357630610466003,
            -1.106091856956482,
            0.126266211271286,
            -1.7832934856414795
          ],
          [
            1.0593535900115967,
            1.0283477306365967,
            1.1898711919784546,
            -0.34354567527770996,
            1.9730712175369263
          ],
          [
            1.211998462677002,
            1.1759812831878662,
            1.2979586124420166,
            -0.11192571371793747,
            2.381108522415161
          ],
          [
            0.3156602382659912,
            0.22446095943450928,
            0.3328782916069031,
            0.030793599784374237,
            0.41296184062957764
          ],
          [
            -0.7484779953956604,
            -0.5572895407676697,
            -0.553379237651825,
            -0.3009195327758789,
            -1.0500140190124512
          ],
          [
            -0.8660874366760254,
            -0.7803955674171448,
            -0.6399585604667664,
            -0.11811374872922897,
            -1.3120628595352173
          ],
          [
            1.1016991138458252,
            1.407218098640442,
            1.1133058071136475,
            -0.5670349597930908,
            2.134925603866577
          ],
          [
            -0.9903804659843445,
            -1.124418020248413,
            -1.0068488121032715,
            -0.1219254583120346,
            -1.7694828510284424
          ],
          [
            -0.5491520166397095,
            -0.5334094166755676,
            -0.7488004565238953,
            -0.3495642840862274,
            -1.1211464405059814
          ],
          [
            -0.17484493553638458,
            -0.17627426981925964,
            -0.4900907874107361,
            -0.9828353524208069,
            -0.60920250415802
          ],
          [
            -0.05384087935090065,
            -0.20793667435646057,
            0.020025942474603653,
            -0.5466185212135315,
            -0.30522140860557556
          ],
          [
            0.126353919506073,
            0.30173778533935547,
            0.31495630741119385,
            0.05918232351541519,
            0.6855652332305908
          ],
          [
            -1.1383535861968994,
            -0.8877532482147217,
            -0.7870206832885742,
            -0.0888025090098381,
            -1.778103232383728
          ],
          [
            0.3366210162639618,
            0.3905259668827057,
            0.4650134742259979,
            0.3036213517189026,
            1.128928303718567
          ],
          [
            0.7035427093505859,
            0.7224034070968628,
            0.9036442637443542,
            0.17764723300933838,
            1.6974862813949585
          ],
          [
            0.3252210021018982,
            0.44714975357055664,
            0.32897695899009705,
            0.41009190678596497,
            0.8938232064247131
          ],
          [
            -0.8728882074356079,
            -1.0085668563842773,
            -1.0302821397781372,
            0.000523251248523593,
            -1.982983946800232
          ],
          [
            -0.9029717445373535,
            -0.9519575834274292,
            -0.8855489492416382,
            -0.13783954083919525,
            -1.6762603521347046
          ],
          [
            1.248907208442688,
            1.1437216997146606,
            1.2412854433059692,
            -0.6065499186515808,
            1.9274982213974
          ],
          [
            0.7439543008804321,
            0.5088487863540649,
            0.5580945014953613,
            0.1337854564189911,
            1.3847298622131348
          ]
        ],
        "biases": [
          1.500303030014038,
          -1.1233298778533936,
          -1.7431236505508423,
          0.08462555706501007,
          1.0807973146438599,
          1.112117052078247,
          -1.2255616188049316,
          2.0174484252929688,
          0.9235267043113708,
          0.5283765196800232,
          0.01049449760466814,
          0.09270840883255005,
          1.8705999851226807,
          -0.2901206314563751,
          -1.0643982887268066,
          -0.16645997762680054,
          1.9015743732452393,
          1.8108315467834473,
          -1.0021041631698608,
          -0.5950603485107422
        ]
      },
      {
        "weights": [
          [
            1.5253559350967407,
            -1.4388682842254639,
            -1.8002674579620361,
            -0.3493552803993225,
            0.8937512040138245,
            0.9914778470993042,
            -1.628824234008789,
            1.4922465085983276,
            0.7628082036972046,
            0.16231399774551392,
            -0.08726170659065247,
            -0.3852984309196472,
            1.421316146850586,
            -0.5843096971511841,
            -1.030653715133667,
            -0.38595449924468994,
            1.7182374000549316,
            1.5854095220565796,
            -1.6169981956481934,
            -0.9676018357276917
          ],
          [
            1.887863039970398,
            -0.7165228724479675,
            -1.5614889860153198,
            0.21903954446315765,
            1.6820685863494873,
            1.4035156965255737,
            -0.9969897270202637,
            2.317636728286743,
            1.381648063659668,
            1.2687498331069946,
            0.6648369431495667,
            0.016225099563598633,
            2.0306828022003174,
            -0.6641353368759155,
            -1.1077995300292969,
            -0.4329613149166107,
            2.290396213531494,
            2.0668535232543945,
            -0.6854909062385559,
            -0.8236874938011169
          ],
          [
            0.5713989734649658,
            -0.4619201123714447,
            -0.6450480818748474,
            0.1188012883067131,
            0.31381577253341675,
            0.39103230834007263,
            -0.6487211585044861,
            0.5168396234512329,
            0.35764873027801514,
            0.1383121758699417,
            -0.04236315190792084,
            -0.2355058342218399,
            0.3087151348590851,
            -0.18736299872398376,
            -0.3025418221950531,
            -0.14612409472465515,
            0.5583791136741638,
            0.33896273374557495,
            -0.620718777179718,
            -0.225998654961586
          ],
          [
            0.232730433344841,
            -0.31030046939849854,
            -0.557424008846283,
            -0.08293195813894272,
            0.1631365567445755,
            0.15058279037475586,
            -0.1750234216451645,
            0.2760781943798065,
            0.06620506197214127,
            0.19726544618606567,
            0.11448055505752563,
            -0.1281760036945343,
            0.6114600896835327,
            -0.25630924105644226,
            -0.16943806409835815,
            -0.3133602440357208,
            0.2888733744621277,
            0.47603684663772583,
            -0.16007180511951447,
            -0.28592127561569214
          ],
          [
            0.2044782191514969,
            -0.5814940333366394,
            -0.5989131331443787,
            -0.5031348466873169,
            0.23495249450206757,
            0.18680161237716675,
            -0.37970295548439026,
            0.2191878855228424,
            0.49140647053718567,
            0.7572977542877197,
            0.27269619703292847,
            -0.5743088126182556,
            0.11883806437253952,
            -0.7641506195068359,
            -0.8311500549316406,
            -0.9315928220748901,
            0.08284369111061096,
            -0.028817366808652878,
            -0.4646032452583313,
            -0.5825603604316711
          ],
          [
            0.11514896154403687,
            -0.48344260454177856,
            -0.36337077617645264,
            -0.02845659852027893,
            0.17309120297431946,
            0.26934584975242615,
            -0.4847275912761688,
            0.29335248470306396,
            0.12976901233196259,
            0.12072788178920746,
            0.2113938331604004,
            0.023878684267401695,
            0.20308534801006317,
            -0.32121801376342773,
            -0.2221979796886444,
            0.026870159432291985,
            0.48788613080978394,
            0.3873755633831024,
            -0.47990092635154724,
            -0.1205318495631218
          ],
          [
            -1.5692542791366577,
            1.0257585048675537,
            1.4734019041061401,
            0.0018488287460058928,
            -1.177689552307129,
            -1.4255422353744507,
            0.7521228790283203,
            -2.0849618911743164,
            -1.3866559267044067,
            -1.2162723541259766,
            -0.38304710388183594,
            0.052418988198041916,
            -2.023322343826294,
            0.35503023862838745,
            0.9015977382659912,
            0.3666197955608368,
            -1.8129075765609741,
            -1.9354262351989746,
            0.5731790661811829,
            0.5037276148796082
          ],
          [
            1.961554765701294,
            -2.0032360553741455,
            -2.274339199066162,
            -0.355238676071167,
            0.9035443663597107,
            1.3602672815322876,
            -2.264733076095581,
            2.0458853244781494,
            0.9288746118545532,
            0.37622326612472534,
            -0.054598305374383926,
            -0.5431315898895264,
            1.8412339687347412,
            -0.7228116989135742,
            -1.493451714515686,
            -0.44963228702545166,
            1.992116093635559,
            1.6248127222061157,
            -2.1424076557159424,
            -1.0020118951797485
          ],
          [
            0.24927298724651337,
            -0.41454124450683594,
            -0.49370625615119934,
            -0.1325136125087738,
            0.14907163381576538,
            0.3026873767375946,
            -0.3031999170780182,
            -0.0749196857213974,
            0.2360764592885971,
            0.49454113841056824,
            0.2025943547487259,
            -0.37077850103378296,
            -0.07495737075805664,
            -0.463718444108963,
            -0.5202014446258545,
            -0.4131060540676117,
            -0.07837806642055511,
            0.2348499894142151,
            -0.3771122992038727,
            -0.68312007188797
          ],
          [
            -1.674048662185669,
            1.4909334182739258,
            1.8696144819259644,
            0.3294561803340912,
            -1.0190808773040771,
            -1.0513383150100708,
            1.508372187614441,
            -1.5850744247436523,
            -1.0275481939315796,
            -0.3921385407447815,
            -0.24309493601322174,
            0.037833113223314285,
            -1.558700680732727,
            0.6051102876663208,
            1.1792622804641724,
            0.5108931064605713,
            -1.5032339096069336,
            -1.4370787143707275,
            1.419284462928772,
            0.9322964549064636
          ]
        ],
        "biases": [
          0.38154128193855286,
          0.9544349312782288,
          -0.011335115879774094,
          0.1912250518798828,
          -0.4049255847930908,
          0.05372746288776398,
          -0.8861410021781921,
          0.13227801024913788,
          -0.21252399682998657,
          -0.3112938106060028
        ]
      },
      {
        "weights": [
          [
            2.6124730110168457,
            0.7723442912101746,
            -0.36256083846092224,
            -0.5844009518623352,
            -2.601283550262451,
            -0.562721312046051,
            -2.572883367538452,
            3.279069662094116,
            -1.6979737281799316,
            -4.805522918701172
          ],
          [
            -3.3941876888275146,
            6.113131523132324,
            -0.8062549829483032,
            0.10102976113557816,
            -0.013581372797489166,
            -0.1955542117357254,
            -5.460812091827393,
            -5.613458156585693,
            -0.39434507489204407,
            1.7942192554473877
          ],
          [
            -2.6240017414093018,
            -4.837774276733398,
            -1.5569088459014893,
            -1.510712742805481,
            -0.8294051289558411,
            -1.382420539855957,
            3.998676300048828,
            -2.036813735961914,
            -0.5565854907035828,
            2.3294990062713623
          ]
        ],
        "biases": [
          -1.588167667388916,
          -1.1770868301391602,
          -0.29173579812049866
        ]
      }
    ],
    "inputLookup": {
      "systolic": 0,
      "diastolic": 1,
      "heartRate": 2,
      "oxygenLevel": 3,
      "temperature": 4
    },
    "inputLookupLength": 5,
    "outputLookup": {
      "normal": 0,
      "abnormal": 1,
      "critical": 2
    },
    "outputLookupLength": 3,
    "options": {
      "inputSize": 0,
      "outputSize": 0,
      "binaryThresh": 0.5,
      "hiddenLayers": [
        20,
        10
      ],
      "activation": "sigmoid",
      "learningRate": 0.01
    },
    "trainOpts": {
      "activation": "sigmoid",
      "iterations": 1000,
      "errorThresh": 0.005,
      "log": true,
      "logPeriod": 10,
      "leakyReluAlpha": 0.01,
      "learningRate": 0.01,
      "momentum": 0.1,
      "callbackPeriod": 10,
      "timeout": "Infinity",
      "beta1": 0.9,
      "beta2": 0.999,
      "epsilon": 1e-8
    }
  },
  "method": "neural-network",
  "recordCount": 9000,
  "iterations": 262,
  "error": 0.004957858135256802,
  "accuracy": 88.88888888888889,
  "timestamp": "2025-05-27T20:43:55.042Z"
}