{
  "modelJson": {
    "type": "NeuralNetwork",
    "sizes": [
      5,
      20,
      10,
      3
    ],
    "layers": [
      {
        "weights": [],
        "biases": []
      },
      {
        "weights": [
          [
            1.6065796613693237,
            1.6120798587799072,
            1.5326948165893555,
            -0.5209851264953613,
            2.6999716758728027
          ],
          [
            1.3276342153549194,
            1.328885555267334,
            1.0853140354156494,
            -0.38468697667121887,
            2.0755224227905273
          ],
          [
            -1.1217339038848877,
            -1.0629230737686157,
            -0.7944933772087097,
            0.0720810666680336,
            -1.6529231071472168
          ],
          [
            0.4235455095767975,
            0.22067753970623016,
            0.42853590846061707,
            0.49953415989875793,
            0.7996125817298889
          ],
          [
            -1.1013462543487549,
            -0.8604615926742554,
            -0.8623563647270203,
            -0.01683454029262066,
            -1.6685678958892822
          ],
          [
            -0.7272251844406128,
            -0.628818690776825,
            -0.5177952647209167,
            -0.3930625319480896,
            -1.1776353120803833
          ],
          [
            -1.2014729976654053,
            -0.9132218956947327,
            -1.1666547060012817,
            0.0680321455001831,
            -1.9483212232589722
          ],
          [
            -0.03417288884520531,
            -0.09744802862405777,
            0.26577863097190857,
            0.012453158386051655,
            0.3072601854801178
          ],
          [
            0.6824168562889099,
            0.6205954551696777,
            0.970095157623291,
            -0.3588468134403229,
            1.4371659755706787
          ],
          [
            -0.9141521453857422,
            -0.6357740163803101,
            -0.9110532402992249,
            0.07321657985448837,
            -1.4494162797927856
          ],
          [
            -0.20607200264930725,
            -0.26256757974624634,
            -0.02496502734720707,
            -0.909761905670166,
            -0.23172344267368317
          ],
          [
            0.6968678832054138,
            0.46974635124206543,
            0.7854934930801392,
            0.2998034954071045,
            1.0343936681747437
          ],
          [
            0.952713668346405,
            1.18646240234375,
            1.2359334230422974,
            -0.48651760816574097,
            2.103065252304077
          ],
          [
            1.4677785634994507,
            1.7167752981185913,
            1.6560070514678955,
            -0.6882771849632263,
            2.840399742126465
          ],
          [
            -0.4886544942855835,
            -0.22909240424633026,
            -0.2438557893037796,
            -0.6169353127479553,
            -0.7914854884147644
          ],
          [
            -0.9002746343612671,
            -1.0202268362045288,
            -0.968290388584137,
            -0.24232876300811768,
            -1.844421148300171
          ],
          [
            -0.40648001432418823,
            -0.3763188123703003,
            -0.3151388168334961,
            -0.5774959921836853,
            -0.8901696801185608
          ],
          [
            0.7075487971305847,
            0.9382983446121216,
            0.9116758108139038,
            -0.48558318614959717,
            1.5163105726242065
          ],
          [
            -0.5352182984352112,
            -0.5363103747367859,
            -0.2950786352157593,
            -0.2976529896259308,
            -0.9701753854751587
          ],
          [
            -1.5693243741989136,
            -1.607079267501831,
            -1.4696786403656006,
            0.2530312240123749,
            -2.561082601547241
          ]
        ],
        "biases": [
          -1.8001610040664673,
          -1.2181525230407715,
          1.6182414293289185,
          -0.10284309834241867,
          1.7462154626846313,
          1.2005654573440552,
          1.924221158027649,
          0.12860307097434998,
          -0.6750897765159607,
          1.1225941181182861,
          0.2962028384208679,
          -0.6169252991676331,
          -1.2256895303726196,
          -1.7263638973236084,
          0.4689275622367859,
          2.0493011474609375,
          1.0905874967575073,
          -0.45360907912254333,
          0.9369648098945618,
          2.412639617919922
        ]
      },
      {
        "weights": [
          [
            1.60468327999115,
            1.131633996963501,
            -1.919809341430664,
            0.4654124677181244,
            -1.9495887756347656,
            -1.4616382122039795,
            -2.156144380569458,
            -0.38160791993141174,
            0.5667392015457153,
            -1.5598355531692505,
            -0.6917797327041626,
            0.7365317940711975,
            1.1088838577270508,
            1.521470546722412,
            -1.16438627243042,
            -2.125894069671631,
            -1.547102689743042,
            0.5511053800582886,
            -1.2471078634262085,
            -2.7163288593292236
          ],
          [
            -2.2488484382629395,
            -1.6374768018722534,
            1.1656535863876343,
            -0.3520357608795166,
            1.4146679639816284,
            1.0282517671585083,
            1.4852700233459473,
            -0.2570861876010895,
            -1.1132653951644897,
            1.2260481119155884,
            0.10166606307029724,
            -0.8259934186935425,
            -1.5842845439910889,
            -2.326260805130005,
            0.42387568950653076,
            1.4696271419525146,
            0.435295969247818,
            -1.3339266777038574,
            0.7370864748954773,
            2.347834825515747
          ],
          [
            -1.1450008153915405,
            -1.1506259441375732,
            0.9817883372306824,
            -0.17762231826782227,
            0.8808648586273193,
            0.40447109937667847,
            0.9820132851600647,
            0.045000914484262466,
            -0.566466748714447,
            0.8193331360816956,
            0.059622421860694885,
            -0.4060124158859253,
            -0.9231168627738953,
            -1.4554754495620728,
            0.2694613039493561,
            0.6739575862884521,
            0.4127170443534851,
            -0.73994380235672,
            0.4249892234802246,
            1.3139582872390747
          ],
          [
            -2.1220133304595947,
            -1.4920710325241089,
            1.435384750366211,
            -0.5447593331336975,
            1.019852638244629,
            0.6598153114318848,
            1.6004983186721802,
            -0.07713199406862259,
            -0.9250580072402954,
            1.203787088394165,
            -0.09953388571739197,
            -0.6779098510742188,
            -1.5862680673599243,
            -2.2971279621124268,
            0.3777600824832916,
            1.4053130149841309,
            0.5769931077957153,
            -0.9659192562103271,
            0.566635251045227,
            2.146606683731079
          ],
          [
            -0.7765827178955078,
            -0.9153916239738464,
            0.14096632599830627,
            -0.96038818359375,
            0.059322040528059006,
            0.4413438141345978,
            0.06528981029987335,
            -0.5224870443344116,
            -0.5424678325653076,
            0.28448572754859924,
            0.4537087678909302,
            -0.9787440896034241,
            -0.6491422653198242,
            -0.7214400172233582,
            0.4923769533634186,
            0.3060742914676666,
            0.19045713543891907,
            -0.7730825543403625,
            0.09755287319421768,
            -0.07091166079044342
          ],
          [
            -0.9624099731445312,
            -0.5132436752319336,
            0.9349205493927002,
            -0.26165971159935,
            1.1920567750930786,
            0.9380703568458557,
            1.2439879179000854,
            -0.010257375426590443,
            -0.3062722682952881,
            0.7877125144004822,
            0.6807869672775269,
            -0.24016298353672028,
            -0.6796176433563232,
            -0.9204428195953369,
            0.6989384889602661,
            1.3419817686080933,
            0.670763373374939,
            -0.1721120923757553,
            0.9311206340789795,
            1.5570745468139648
          ],
          [
            1.84702467918396,
            1.387895941734314,
            -1.1780080795288086,
            0.13092240691184998,
            -1.2907745838165283,
            -0.8038012981414795,
            -1.3569645881652832,
            -0.1312015950679779,
            0.9236241579055786,
            -0.8210744261741638,
            -0.04199529439210892,
            0.39921557903289795,
            1.351481318473816,
            1.8389228582382202,
            -0.27634549140930176,
            -1.2793787717819214,
            -0.39557215571403503,
            0.9670134782791138,
            -0.5536310076713562,
            -1.9287071228027344
          ],
          [
            0.35015493631362915,
            0.016495075076818466,
            -0.6083003282546997,
            -0.26454541087150574,
            -0.5883863568305969,
            -0.435281902551651,
            -0.5820001363754272,
            -0.007922004908323288,
            0.06582384556531906,
            -0.4806264638900757,
            -0.11357832700014114,
            -0.015498120337724686,
            0.20548303425312042,
            0.3626425266265869,
            -0.07724825292825699,
            -0.753514289855957,
            -0.4249303936958313,
            -0.09970783442258835,
            -0.452462762594223,
            -0.697839617729187
          ],
          [
            1.612687587738037,
            1.1251401901245117,
            -1.284785509109497,
            0.07484466582536697,
            -1.1937317848205566,
            -0.8448579907417297,
            -1.3494946956634521,
            0.026294635608792305,
            0.7796719074249268,
            -0.7953741550445557,
            0.020804354920983315,
            0.5004355907440186,
            1.1363964080810547,
            1.5271178483963013,
            -0.2818843722343445,
            -1.3219366073608398,
            -0.5569574236869812,
            0.6725148558616638,
            -0.4771089255809784,
            -1.5673179626464844
          ],
          [
            -1.3754810094833374,
            -0.9185352921485901,
            1.3587332963943481,
            -0.5649857521057129,
            1.3172602653503418,
            1.4692721366882324,
            1.6512413024902344,
            0.12559303641319275,
            -0.4715382754802704,
            1.023983359336853,
            0.8322763442993164,
            -0.6582798957824707,
            -0.7452229857444763,
            -1.2791905403137207,
            0.9810634851455688,
            1.841799259185791,
            1.3071235418319702,
            -0.24866138398647308,
            1.1582317352294922,
            2.0851173400878906
          ]
        ],
        "biases": [
          -0.7622080445289612,
          -0.10633587092161179,
          0.19743451476097107,
          0.002818981884047389,
          -0.4148808717727661,
          0.43144598603248596,
          -0.22884060442447662,
          -0.3930554986000061,
          -0.26762014627456665,
          0.8596060872077942
        ]
      },
      {
        "weights": [
          [
            -3.5577924251556396,
            2.0964348316192627,
            0.4579566419124603,
            1.9941054582595825,
            -2.8055944442749023,
            0.548454999923706,
            -3.3921642303466797,
            -1.210151195526123,
            -3.8723952770233154,
            0.5500547885894775
          ],
          [
            -7.187359809875488,
            -4.715319633483887,
            -2.140486001968384,
            -4.1038594245910645,
            -0.12766192853450775,
            2.064452648162842,
            2.0943844318389893,
            -1.026016116142273,
            0.9380184412002563,
            4.406898021697998
          ],
          [
            4.415919780731201,
            -1.5679808855056763,
            -1.2206833362579346,
            -1.8537636995315552,
            -1.3859379291534424,
            -3.4775190353393555,
            0.9446851015090942,
            0.6651809215545654,
            1.3460803031921387,
            -4.248848915100098
          ]
        ],
        "biases": [
          -2.044092893600464,
          -1.167144536972046,
          -0.7470851540565491
        ]
      }
    ],
    "inputLookup": {
      "systolic": 0,
      "diastolic": 1,
      "heartRate": 2,
      "oxygenLevel": 3,
      "temperature": 4
    },
    "inputLookupLength": 5,
    "outputLookup": {
      "normal": 0,
      "abnormal": 1,
      "critical": 2
    },
    "outputLookupLength": 3,
    "options": {
      "inputSize": 0,
      "outputSize": 0,
      "binaryThresh": 0.5,
      "hiddenLayers": [
        20,
        10
      ],
      "activation": "sigmoid",
      "learningRate": 0.01
    },
    "trainOpts": {
      "activation": "sigmoid",
      "iterations": 1000,
      "errorThresh": 0.005,
      "log": true,
      "logPeriod": 10,
      "leakyReluAlpha": 0.01,
      "learningRate": 0.01,
      "momentum": 0.1,
      "callbackPeriod": 10,
      "timeout": "Infinity",
      "beta1": 0.9,
      "beta2": 0.999,
      "epsilon": 1e-8
    }
  },
  "method": "neural-network",
  "recordCount": 9300,
  "iterations": 1000,
  "error": 0.005843136263966248,
  "accuracy": 89.24731182795699,
  "timestamp": "2025-05-27T20:46:26.858Z"
}