{
  "modelJson": {
    "type": "NeuralNetwork",
    "sizes": [
      5,
      16,
      8,
      3
    ],
    "layers": [
      {
        "weights": [],
        "biases": []
      },
      {
        "weights": [
          [
            -1.666595220565796,
            -1.1027015447616577,
            -2.581650733947754,
            0.6378161907196045,
            -0.8025791645050049
          ],
          [
            -1.3647269010543823,
            -1.0392392873764038,
            -2.7032902240753174,
            0.9505458474159241,
            -1.769728183746338
          ],
          [
            2.947504997253418,
            3.043729782104492,
            0.030377885326743126,
            -0.8776624202728271,
            0.11432421952486038
          ],
          [
            3.6705145835876465,
            3.902087450027466,
            -0.2454327940940857,
            2.0300545692443848,
            -2.7138798236846924
          ],
          [
            5.008191108703613,
            5.581597328186035,
            -5.235644340515137,
            6.799943447113037,
            -5.177369594573975
          ],
          [
            1.2577674388885498,
            1.2412973642349243,
            0.5016055107116699,
            0.7657589912414551,
            -1.037165641784668
          ],
          [
            3.5583109855651855,
            3.707725763320923,
            -0.7235772609710693,
            -0.3481532633304596,
            -0.5154923796653748
          ],
          [
            1.8504663705825806,
            2.032973051071167,
            0.45120969414711,
            -0.3872451186180115,
            0.12771357595920563
          ],
          [
            1.7444549798965454,
            1.2220430374145508,
            4.159215927124023,
            -0.8868736624717712,
            1.798349142074585
          ],
          [
            -2.0445775985717773,
            -1.5654062032699585,
            -4.187215805053711,
            1.6699110269546509,
            -1.9703199863433838
          ],
          [
            8.5331392288208,
            8.389389991760254,
            -13.511489868164062,
            5.929433822631836,
            -7.775976657867432
          ],
          [
            0.10365092754364014,
            0.2620086073875427,
            -0.20908792316913605,
            -0.11061960458755493,
            0.18660125136375427
          ],
          [
            9.599053382873535,
            9.603944778442383,
            -5.489522457122803,
            2.4932591915130615,
            -2.941161870956421
          ],
          [
            2.683359146118164,
            2.6656410694122314,
            0.9010825157165527,
            -0.7823138236999512,
            0.19990164041519165
          ],
          [
            7.247162818908691,
            7.53360652923584,
            -1.3807189464569092,
            -1.1351934671401978,
            -0.1364089399576187
          ],
          [
            0.9644985198974609,
            0.971775472164154,
            -0.010713735595345497,
            0.39681968092918396,
            -0.47583410143852234
          ]
        ],
        "biases": [
          0.8332732319831848,
          0.4235456585884094,
          -1.686260461807251,
          -1.0624115467071533,
          -1.2543362379074097,
          -1.079868197441101,
          -2.1326961517333984,
          -1.343130350112915,
          -1.7204234600067139,
          1.3318623304367065,
          -0.17679692804813385,
          -0.09805590659379959,
          -6.509392261505127,
          -1.8542579412460327,
          -3.6922404766082764,
          -0.47395482659339905
        ]
      },
      {
        "weights": [
          [
            0.4729596972465515,
            1.52472984790802,
            -2.1162405014038086,
            3.591789484024048,
            7.167420387268066,
            -0.16982188820838928,
            -2.247661828994751,
            -1.5913735628128052,
            -3.0815656185150146,
            1.9608211517333984,
            6.629910945892334,
            -1.0436720848083496,
            -7.159381866455078,
            -2.042419672012329,
            -4.984410285949707,
            -0.5202401876449585
          ],
          [
            3.1467928886413574,
            2.424781084060669,
            -2.6443376541137695,
            -1.5536450147628784,
            4.160996913909912,
            -2.2010066509246826,
            -2.9882004261016846,
            -2.1644644737243652,
            -4.386970043182373,
            4.493946075439453,
            10.702926635742188,
            0.03710823506116867,
            -9.878135681152344,
            -3.2484707832336426,
            -5.769726753234863,
            -1.169640302658081
          ],
          [
            -2.0102460384368896,
            -1.5545682907104492,
            1.8894100189208984,
            1.097974181175232,
            -3.4384844303131104,
            1.7029087543487549,
            2.3081185817718506,
            1.8410296440124512,
            3.5502572059631348,
            -3.2897536754608154,
            -8.71760368347168,
            0.06358371675014496,
            6.728390693664551,
            2.1074259281158447,
            4.017526149749756,
            1.2512996196746826
          ],
          [
            0.2766445279121399,
            0.08986026793718338,
            0.3029721975326538,
            0.5084985494613647,
            0.11564412713050842,
            0.5284901261329651,
            0.1178588718175888,
            0.12416597455739975,
            0.403105765581131,
            0.39852312207221985,
            0.14705528318881989,
            0.27891257405281067,
            0.17972402274608612,
            0.09492803364992142,
            0.13272014260292053,
            0.6063380837440491
          ],
          [
            -0.20530107617378235,
            -0.0739578828215599,
            0.1424231231212616,
            -0.43048620223999023,
            -0.8933678865432739,
            0.3106083571910858,
            0.08306841552257538,
            0.19738690555095673,
            0.25819534063339233,
            -0.14636296033859253,
            -1.2327712774276733,
            0.2887369394302368,
            0.8998090624809265,
            0.12720155715942383,
            0.5474860668182373,
            0.08626621961593628
          ],
          [
            0.13896605372428894,
            0.26477450132369995,
            -0.5264202356338501,
            0.22598204016685486,
            0.8500674962997437,
            -0.1963372528553009,
            -0.42781269550323486,
            -0.3500731885433197,
            -0.7677181363105774,
            0.4865456521511078,
            0.6983376741409302,
            -0.28332194685935974,
            -1.1569883823394775,
            -0.2867128849029541,
            -1.0669739246368408,
            -0.15196748077869415
          ],
          [
            -0.8137409687042236,
            -1.2351891994476318,
            1.9644275903701782,
            -2.7621898651123047,
            -6.103494644165039,
            0.01825123280286789,
            2.071033239364624,
            1.3275988101959229,
            2.840764045715332,
            -1.7915034294128418,
            -5.812011241912842,
            0.56798255443573,
            6.222322940826416,
            1.8196728229522705,
            4.330760478973389,
            0.6199195981025696
          ],
          [
            -0.513399064540863,
            -0.6905664205551147,
            0.9388943910598755,
            -1.2831320762634277,
            -2.71317982673645,
            0.18928596377372742,
            0.7550386786460876,
            0.5796654224395752,
            1.1811697483062744,
            -0.9935120344161987,
            -2.7957634925842285,
            0.3487478792667389,
            2.7933924198150635,
            0.92729252576828,
            2.0557634830474854,
            0.268562376499176
          ]
        ],
        "biases": [
          -0.9576496481895447,
          0.27314409613609314,
          -0.2815333306789398,
          0.541307806968689,
          0.010066167451441288,
          -0.07019978761672974,
          0.49092844128608704,
          0.26556864380836487
        ]
      },
      {
        "weights": [
          [
            1.1193605661392212,
            6.636880397796631,
            -8.249202728271484,
            -2.390373945236206,
            -1.457167387008667,
            -1.9393876791000366,
            -3.450244903564453,
            -2.898589849472046
          ],
          [
            9.853682518005371,
            -10.645288467407227,
            5.183211803436279,
            -1.7175301313400269,
            -1.9206842184066772,
            0.581504225730896,
            -9.801273345947266,
            -3.8870716094970703
          ],
          [
            -10.404915809631348,
            -2.602919101715088,
            1.7591183185577393,
            -1.0592257976531982,
            0.8334557414054871,
            -2.510936737060547,
            6.999812126159668,
            3.4914982318878174
          ]
        ],
        "biases": [
          -0.9539881944656372,
          -0.638185977935791,
          -0.8617776036262512
        ]
      }
    ],
    "inputLookup": {
      "systolic": 0,
      "diastolic": 1,
      "heartRate": 2,
      "oxygenLevel": 3,
      "temperature": 4
    },
    "inputLookupLength": 5,
    "outputLookup": {
      "normal": 0,
      "abnormal": 1,
      "critical": 2
    },
    "outputLookupLength": 3,
    "options": {
      "inputSize": 0,
      "outputSize": 0,
      "binaryThresh": 0.5,
      "hiddenLayers": [
        16,
        8
      ],
      "activation": "sigmoid",
      "learningRate": 0.0099,
      "momentum": 0.6,
      "regularization": 0.001
    },
    "trainOpts": {
      "activation": "sigmoid",
      "iterations": 200,
      "errorThresh": 0.003,
      "log": true,
      "logPeriod": 1,
      "leakyReluAlpha": 0.01,
      "learningRate": 0.0099,
      "momentum": 0.6,
      "callbackPeriod": 10,
      "timeout": "Infinity",
      "beta1": 0.9,
      "beta2": 0.999,
      "epsilon": 1e-8
    }
  },
  "method": "neural-network",
  "recordCount": 63000,
  "iterations": 200,
  "error": 0.013640094450330681,
  "accuracy": 97.85185185185186,
  "classAccuracies": {
    "normal": 99.66510381781649,
    "abnormal": 94.33234421364986,
    "critical": 99.93535875888817
  },
  "medicalCorrelationScore": 97.82010582010582,
  "confusionMatrix": {
    "normal": {
      "normal": 2976,
      "abnormal": 10,
      "critical": 0
    },
    "abnormal": {
      "normal": 165,
      "abnormal": 3179,
      "critical": 26
    },
    "critical": {
      "normal": 0,
      "abnormal": 2,
      "critical": 3092
    }
  },
  "config": {
    "iterations": 200,
    "batchSize": 128,
    "learningRate": 0.0099,
    "hiddenLayers": [
      16,
      8
    ],
    "errorThreshold": 0.003,
    "validationSplit": 0.2,
    "regularization": 0.001,
    "momentum": 0.6
  },
  "dataQuality": 51.973455433455435,
  "timestamp": "2025-06-05T08:59:17.859Z",
  "trainingDuration": 51079,
  "enhancedFeatures": {
    "validationSplit": 0.2,
    "regularization": 0.001,
    "momentum": 0.6
  }
}